<?xml version="1.0"?>
<opencv_storage>
<stage6>
  <maxWeakCount>7</maxWeakCount>
  <stageThreshold>-1.5759211778640747e+00</stageThreshold>
  <weakClassifiers>
    <_>
      <internalNodes>
        0 -1 34660 1.3327008113265038e-02</internalNodes>
      <leafValues>
        -3.7025317549705505e-01 7.1367520093917847e-01</leafValues></_>
    <_>
      <internalNodes>
        0 -1 76024 -7.9790261224843562e-05</internalNodes>
      <leafValues>
        -7.7493566274642944e-01 3.6855456233024597e-01</leafValues></_>
    <_>
      <internalNodes>
        0 -1 30254 -4.9158907495439053e-04</internalNodes>
      <leafValues>
        -8.8607454299926758e-01 2.4303179979324341e-01</leafValues></_>
    <_>
      <internalNodes>
        0 -1 45129 -1.2887873686850071e-02</internalNodes>
      <leafValues>
        6.9518983364105225e-01 -3.3705422282218933e-01</leafValues></_>
    <_>
      <internalNodes>
        0 -1 33499 -2.3747222498059273e-02</internalNodes>
      <leafValues>
        3.4357768297195435e-01 -6.4706021547317505e-01</leafValues></_>
    <_>
      <internalNodes>
        0 -1 40397 -5.6447066366672516e-02</internalNodes>
      <leafValues>
        7.6832294464111328e-01 -2.9198104143142700e-01</leafValues></_>
    <_>
      <internalNodes>
        0 -1 76115 -6.9816727773286402e-05</internalNodes>
      <leafValues>
        -5.4115891456604004e-01 4.3015664815902710e-01</leafValues></_></weakClassifiers></stage6>
</opencv_storage>
