<?xml version="1.0"?>
<opencv_storage>
<stage8>
  <maxWeakCount>9</maxWeakCount>
  <stageThreshold>-1.1536697149276733e+00</stageThreshold>
  <weakClassifiers>
    <_>
      <internalNodes>
        0 -1 75669 -3.6709610372781754e-02</internalNodes>
      <leafValues>
        4.9262535572052002e-01 -5.5450236797332764e-01</leafValues></_>
    <_>
      <internalNodes>
        0 -1 32934 -6.3833584135863930e-05</internalNodes>
      <leafValues>
        -7.2700405120849609e-01 2.9944714903831482e-01</leafValues></_>
    <_>
      <internalNodes>
        0 -1 31230 -1.1268161237239838e-02</internalNodes>
      <leafValues>
        3.0800795555114746e-01 -7.6966816186904907e-01</leafValues></_>
    <_>
      <internalNodes>
        0 -1 67999 1.3005772605538368e-02</internalNodes>
      <leafValues>
        -6.0921829938888550e-01 2.3470111191272736e-01</leafValues></_>
    <_>
      <internalNodes>
        0 -1 38737 8.3398632705211639e-03</internalNodes>
      <leafValues>
        -4.8861896991729736e-01 3.4012514352798462e-01</leafValues></_>
    <_>
      <internalNodes>
        0 -1 18597 1.2736266478896141e-02</internalNodes>
      <leafValues>
        1.7628133296966553e-01 -8.0950480699539185e-01</leafValues></_>
    <_>
      <internalNodes>
        0 -1 10598 -7.5430199503898621e-02</internalNodes>
      <leafValues>
        -8.1937891244888306e-01 2.1332016587257385e-01</leafValues></_>
    <_>
      <internalNodes>
        0 -1 72681 -6.0447113355621696e-05</internalNodes>
      <leafValues>
        -8.9928174018859863e-01 1.2102221697568893e-01</leafValues></_>
    <_>
      <internalNodes>
        0 -1 55136 -4.3748840689659119e-03</internalNodes>
      <leafValues>
        6.0670489072799683e-01 -2.7983507513999939e-01</leafValues></_></weakClassifiers></stage8>
</opencv_storage>
